svm_type c_svc
kernel_type linear
nr_class 2
total_sv 2
rho 1.8881926800335065
label 1 0
probA -1.5336587243468205
probB 0.8443816341095994
nr_sv 1 1
SV
8.164858852468333E-5 1:226.01328142889858 2:0.855 3:0.1974 
-8.164858852468333E-5 1:69.50587640591432 2:0.05308333333333334 3:0.11 
